digraph Tree {
node [shape=box] ;
0 [label="X[1] <= 2.5\ngini = 0.452\nsamples = 699\nvalue = [458, 241]"] ;
1 [label="X[5] <= 5.5\ngini = 0.054\nsamples = 429\nvalue = [417, 12]"] ;
0 -> 1 [labeldistance=2.5, labelangle=45, headlabel="True"] ;
2 [label="X[0] <= 6.5\ngini = 0.023\nsamples = 421\nvalue = [416, 5]"] ;
1 -> 2 ;
3 [label="X[7] <= 9.0\ngini = 0.01\nsamples = 416\nvalue = [414, 2]"] ;
2 -> 3 ;
4 [label="X[5] <= 4.5\ngini = 0.005\nsamples = 415\nvalue = [414, 1]"] ;
3 -> 4 ;
5 [label="gini = 0.0\nsamples = 407\nvalue = [407, 0]"] ;
4 -> 5 ;
6 [label="X[4] <= 1.5\ngini = 0.219\nsamples = 8\nvalue = [7, 1]"] ;
4 -> 6 ;
7 [label="gini = 0.0\nsamples = 1\nvalue = [0, 1]"] ;
6 -> 7 ;
8 [label="gini = 0.0\nsamples = 7\nvalue = [7, 0]"] ;
6 -> 8 ;
9 [label="gini = 0.0\nsamples = 1\nvalue = [0, 1]"] ;
3 -> 9 ;
10 [label="X[2] <= 2.5\ngini = 0.48\nsamples = 5\nvalue = [2, 3]"] ;
2 -> 10 ;
11 [label="gini = 0.0\nsamples = 2\nvalue = [2, 0]"] ;
10 -> 11 ;
12 [label="gini = 0.0\nsamples = 3\nvalue = [0, 3]"] ;
10 -> 12 ;
13 [label="X[0] <= 2.5\ngini = 0.219\nsamples = 8\nvalue = [1, 7]"] ;
1 -> 13 ;
14 [label="gini = 0.0\nsamples = 1\nvalue = [1, 0]"] ;
13 -> 14 ;
15 [label="gini = 0.0\nsamples = 7\nvalue = [0, 7]"] ;
13 -> 15 ;
16 [label="X[2] <= 2.5\ngini = 0.258\nsamples = 270\nvalue = [41, 229]"] ;
0 -> 16 [labeldistance=2.5, labelangle=-45, headlabel="False"] ;
17 [label="X[0] <= 5.5\ngini = 0.34\nsamples = 23\nvalue = [18, 5]"] ;
16 -> 17 ;
18 [label="X[5] <= 7.5\ngini = 0.1\nsamples = 19\nvalue = [18, 1]"] ;
17 -> 18 ;
19 [label="gini = 0.0\nsamples = 18\nvalue = [18, 0]"] ;
18 -> 19 ;
20 [label="gini = 0.0\nsamples = 1\nvalue = [0, 1]"] ;
18 -> 20 ;
21 [label="gini = 0.0\nsamples = 4\nvalue = [0, 4]"] ;
17 -> 21 ;
22 [label="X[5] <= 2.5\ngini = 0.169\nsamples = 247\nvalue = [23, 224]"] ;
16 -> 22 ;
23 [label="X[2] <= 3.5\ngini = 0.461\nsamples = 36\nvalue = [13, 23]"] ;
22 -> 23 ;
24 [label="gini = 0.0\nsamples = 7\nvalue = [7, 0]"] ;
23 -> 24 ;
25 [label="X[1] <= 6.5\ngini = 0.328\nsamples = 29\nvalue = [6, 23]"] ;
23 -> 25 ;
26 [label="X[4] <= 9.0\ngini = 0.49\nsamples = 14\nvalue = [6, 8]"] ;
25 -> 26 ;
27 [label="X[5] <= 1.5\ngini = 0.5\nsamples = 12\nvalue = [6, 6]"] ;
26 -> 27 ;
28 [label="X[3] <= 3.5\ngini = 0.48\nsamples = 10\nvalue = [6, 4]"] ;
27 -> 28 ;
29 [label="X[6] <= 5.5\ngini = 0.32\nsamples = 5\nvalue = [4, 1]"] ;
28 -> 29 ;
30 [label="gini = 0.0\nsamples = 4\nvalue = [4, 0]"] ;
29 -> 30 ;
31 [label="gini = 0.0\nsamples = 1\nvalue = [0, 1]"] ;
29 -> 31 ;
32 [label="X[5] <= 0.5\ngini = 0.48\nsamples = 5\nvalue = [2, 3]"] ;
28 -> 32 ;
33 [label="gini = 0.0\nsamples = 2\nvalue = [2, 0]"] ;
32 -> 33 ;
34 [label="gini = 0.0\nsamples = 3\nvalue = [0, 3]"] ;
32 -> 34 ;
35 [label="gini = 0.0\nsamples = 2\nvalue = [0, 2]"] ;
27 -> 35 ;
36 [label="gini = 0.0\nsamples = 2\nvalue = [0, 2]"] ;
26 -> 36 ;
37 [label="gini = 0.0\nsamples = 15\nvalue = [0, 15]"] ;
25 -> 37 ;
38 [label="X[1] <= 4.5\ngini = 0.09\nsamples = 211\nvalue = [10, 201]"] ;
22 -> 38 ;
39 [label="X[0] <= 6.5\ngini = 0.226\nsamples = 54\nvalue = [7, 47]"] ;
38 -> 39 ;
40 [label="X[0] <= 5.5\ngini = 0.386\nsamples = 23\nvalue = [6, 17]"] ;
39 -> 40 ;
41 [label="X[5] <= 6.0\ngini = 0.351\nsamples = 22\nvalue = [5, 17]"] ;
40 -> 41 ;
42 [label="X[1] <= 3.5\ngini = 0.494\nsamples = 9\nvalue = [4, 5]"] ;
41 -> 42 ;
43 [label="X[4] <= 3.5\ngini = 0.278\nsamples = 6\nvalue = [1, 5]"] ;
42 -> 43 ;
44 [label="gini = 0.0\nsamples = 5\nvalue = [0, 5]"] ;
43 -> 44 ;
45 [label="gini = 0.0\nsamples = 1\nvalue = [1, 0]"] ;
43 -> 45 ;
46 [label="gini = 0.0\nsamples = 3\nvalue = [3, 0]"] ;
42 -> 46 ;
47 [label="X[6] <= 3.5\ngini = 0.142\nsamples = 13\nvalue = [1, 12]"] ;
41 -> 47 ;
48 [label="X[2] <= 3.5\ngini = 0.5\nsamples = 2\nvalue = [1, 1]"] ;
47 -> 48 ;
49 [label="gini = 0.0\nsamples = 1\nvalue = [0, 1]"] ;
48 -> 49 ;
50 [label="gini = 0.0\nsamples = 1\nvalue = [1, 0]"] ;
48 -> 50 ;
51 [label="gini = 0.0\nsamples = 11\nvalue = [0, 11]"] ;
47 -> 51 ;
52 [label="gini = 0.0\nsamples = 1\nvalue = [1, 0]"] ;
40 -> 52 ;
53 [label="X[5] <= 7.5\ngini = 0.062\nsamples = 31\nvalue = [1, 30]"] ;
39 -> 53 ;
54 [label="X[3] <= 4.5\ngini = 0.198\nsamples = 9\nvalue = [1, 8]"] ;
53 -> 54 ;
55 [label="gini = 0.0\nsamples = 7\nvalue = [0, 7]"] ;
54 -> 55 ;
56 [label="X[8] <= 1.5\ngini = 0.5\nsamples = 2\nvalue = [1, 1]"] ;
54 -> 56 ;
57 [label="gini = 0.0\nsamples = 1\nvalue = [0, 1]"] ;
56 -> 57 ;
58 [label="gini = 0.0\nsamples = 1\nvalue = [1, 0]"] ;
56 -> 58 ;
59 [label="gini = 0.0\nsamples = 22\nvalue = [0, 22]"] ;
53 -> 59 ;
60 [label="X[3] <= 1.5\ngini = 0.037\nsamples = 157\nvalue = [3, 154]"] ;
38 -> 60 ;
61 [label="X[0] <= 7.0\ngini = 0.346\nsamples = 9\nvalue = [2, 7]"] ;
60 -> 61 ;
62 [label="X[4] <= 7.5\ngini = 0.444\nsamples = 3\nvalue = [2, 1]"] ;
61 -> 62 ;
63 [label="gini = 0.0\nsamples = 2\nvalue = [2, 0]"] ;
62 -> 63 ;
64 [label="gini = 0.0\nsamples = 1\nvalue = [0, 1]"] ;
62 -> 64 ;
65 [label="gini = 0.0\nsamples = 6\nvalue = [0, 6]"] ;
61 -> 65 ;
66 [label="X[7] <= 2.5\ngini = 0.013\nsamples = 148\nvalue = [1, 147]"] ;
60 -> 66 ;
67 [label="X[5] <= 8.5\ngini = 0.083\nsamples = 23\nvalue = [1, 22]"] ;
66 -> 67 ;
68 [label="X[0] <= 7.5\ngini = 0.375\nsamples = 4\nvalue = [1, 3]"] ;
67 -> 68 ;
69 [label="gini = 0.0\nsamples = 1\nvalue = [1, 0]"] ;
68 -> 69 ;
70 [label="gini = 0.0\nsamples = 3\nvalue = [0, 3]"] ;
68 -> 70 ;
71 [label="gini = 0.0\nsamples = 19\nvalue = [0, 19]"] ;
67 -> 71 ;
72 [label="gini = 0.0\nsamples = 125\nvalue = [0, 125]"] ;
66 -> 72 ;
}
